{"learner":{"attributes":{"best_iteration":"9","best_score":"6.193719023522006","scikit_learn":"{\"_estimator_type\": \"regressor\"}"},"feature_names":["pitches","tbf","games","velo_avg","velo_max","spin_avg","hbreak_avg","vbreak_avg","extension_avg","release_consistency","whiff_rate","chase_rate","z_contact_rate","csw_rate","ip","ip_per_game","k9_last14d","whiff_last14d","kpct_last14d","k9_last30d","whiff_last30d","kpct_last30d","k_pct"],"feature_types":["int","int","int","float","float","float","float","float","float","float","float","float","float","float","float","float","float","float","float","float","float","float","float"],"gradient_booster":{"model":{"cats":{"enc":[],"feature_segments":[],"sorted_idx":[]},"gbtree_model_param":{"num_parallel_tree":"1","num_trees":"40"},"iteration_indptr":[0,1,2,3,4,5,6,7,8,9,10,11,12,13,14,15,16,17,18,19,20,21,22,23,24,25,26,27,28,29,30,31,32,33,34,35,36,37,38,39,40],"tree_info":[0,0,0,0,0,0,0,0,0,0,0,0,0,0,0,0,0,0,0,0,0,0,0,0,0,0,0,0,0,0,0,0,0,0,0,0,0,0,0,0],"trees":[{"base_weights":[4.3654975E-2,-3.293009E0,8.8137865E-1,-5.6597652E0,4.521933E-1,5.274419E-1,1.6395493E-1,-2.1436584E-1,-5.861039E-2,-1.5382477E-2,4.491646E-2,4.9671266E-2,-6.571127E-2],"categories":[],"categories_nodes":[],"categories_segments":[],"categories_sizes":[],"default_left":[0,0,0,0,0,0,0,0,0,0,0,0,0],"id":0,"left_children":[1,3,5,7,9,11,-1,-1,-1,-1,-1,-1,-1],"loss_changes":[4.0431293E2,2.6477786E2,1.7943353E2,6.6644775E1,1.5136644E1,3.4429254E2,0E0,0E0,0E0,0E0,0E0,0E0,0E0],"parents":[2147483647,0,0,1,1,2,2,3,3,4,4,5,5],"right_children":[2,4,6,8,10,12,-1,-1,-1,-1,-1,-1,-1],"split_conditions":[9.43E1,2.7586207E-1,4.2857143E-1,2.4E-1,8.3870965E-1,3.119266E-1,1.6395493E-1,-2.1436584E-1,-5.861039E-2,-1.5382477E-2,4.491646E-2,4.9671266E-2,-6.571127E-2],"split_indices":[4,13,10,11,12,13,0,0,0,0,0,0,0],"split_type":[0,0,0,0,0,0,0,0,0,0,0,0,0],"sum_hessian":[1.41E2,2.7E1,1.14E2,1.6E1,1.1E1,1.08E2,6E0,1E1,6E0,6E0,5E0,7.7E1,3.1E1],"tree_param":{"num_deleted":"0","num_feature":"23","num_nodes":"13","size_leaf_vector":"1"}},{"base_weights":[5.9688244E-2,-4.90729E-1,4.855346E0,-3.7877364E0,1.7304935E-1,2.516439E-1,-4.521906E-2,-1.620013E-1,-3.4444463E-2,-2.4612244E-2,1.0909313E-1],"categories":[],"categories_nodes":[],"categories_segments":[],"categories_sizes":[],"default_left":[0,0,0,0,0,0,0,0,0,0,0],"id":1,"left_children":[1,3,5,7,9,-1,-1,-1,-1,-1,-1],"loss_changes":[3.8441226E2,2.8762094E2,3.658952E2,7.795398E1,3.8585495E2,0E0,0E0,0E0,0E0,0E0,0E0],"parents":[2147483647,0,0,1,1,2,2,3,3,4,4],"right_children":[2,4,6,8,10,-1,-1,-1,-1,-1,-1],"split_conditions":[2.5757222E3,8E0,8.148148E-1,9.59E1,8.435632E-1,2.516439E-1,-4.521906E-2,-1.620013E-1,-3.4444463E-2,-2.4612244E-2,1.0909313E-1],"split_indices":[5,1,12,4,7,0,0,0,0,0,0],"split_type":[0,0,0,0,0,0,0,0,0,0,0],"sum_hessian":[1.41E2,1.28E2,1.3E1,2E1,1.08E2,8E0,5E0,1.1E1,9E0,8.5E1,2.3E1],"tree_param":{"num_deleted":"0","num_feature":"23","num_nodes":"11","size_leaf_vector":"1"}},{"base_weights":[7.130927E-2,-1.301121E0,1.8587543E0,-3.4034508E-1,-4.677546E0,3.102576E0,-1.583803E0,8.744188E-2,-3.3688124E-2,-4.706108E-2,-1.6584097E-1,5.28567E-2,1.7887773E-1,4.686284E-2,-1.2603602E-1],"categories":[],"categories_nodes":[],"categories_segments":[],"categories_sizes":[],"default_left":[0,0,0,0,0,0,0,0,0,0,0,0,0,0,0],"id":2,"left_children":[1,3,5,7,9,11,13,-1,-1,-1,-1,-1,-1,-1,-1],"loss_changes":[3.7799362E2,2.7653403E2,2.974762E2,1.8396796E2,2.9344543E1,1.6684598E2,1.7089212E2,0E0,0E0,0E0,0E0,0E0,0E0,0E0,0E0],"parents":[2147483647,0,0,1,1,2,2,3,3,4,4,5,5,6,6],"right_children":[2,4,6,8,10,12,14,-1,-1,-1,-1,-1,-1,-1,-1],"split_conditions":[9.818182E0,3.0555555E-1,8.196335E-1,5.4697675E-1,2E0,3.529412E-1,1.2461538E1,8.744188E-2,-3.3688124E-2,-4.706108E-2,-1.6584097E-1,5.28567E-2,1.7887773E-1,4.686284E-2,-1.2603602E-1],"split_indices":[16,10,9,6,2,13,16,0,0,0,0,0,0,0,0],"split_type":[0,0,0,0,0,0,0,0,0,0,0,0,0,0,0],"sum_hessian":[1.5E2,8.5E1,6.5E1,6.8E1,1.7E1,4.8E1,1.7E1,1.2E1,5.6E1,5E0,1.2E1,3.5E1,1.3E1,8E0,9E0],"tree_param":{"num_deleted":"0","num_feature":"23","num_nodes":"15","size_leaf_vector":"1"}},{"base_weights":[1.6584212E-1,-2.0941403E0,9.582386E-1,-3.2153213E0,1.2030321E0,4.1163387E0,1.1938317E-1,-1.4183171E-1,-1.6791021E-2,8.7176286E-2,-2.3163201E-2,-5.150568E-2,1.7313969E-1,3.1549443E-2,-7.464248E-2],"categories":[],"categories_nodes":[],"categories_segments":[],"categories_sizes":[],"default_left":[0,0,0,0,0,0,0,0,0,0,0,0,0,0,0],"id":3,"left_children":[1,3,5,7,9,11,13,-1,-1,-1,-1,-1,-1,-1,-1],"loss_changes":[2.899738E2,1.6400494E2,3.14802E2,1.205878E2,4.591442E1,2.631905E2,2.4030733E2,0E0,0E0,0E0,0E0,0E0,0E0,0E0,0E0],"parents":[2147483647,0,0,1,1,2,2,3,3,4,4,5,5,6,6],"right_children":[2,4,6,8,10,12,14,-1,-1,-1,-1,-1,-1,-1,-1],"split_conditions":[8.782174E1,1.1332653E0,8.926667E1,9.529411E0,8.51027E1,2E0,1.0032585E0,-1.4183171E-1,-1.6791021E-2,8.7176286E-2,-2.3163201E-2,-5.150568E-2,1.7313969E-1,3.1549443E-2,-7.464248E-2],"split_indices":[3,6,3,16,3,14,6,0,0,0,0,0,0,0,0],"split_type":[0,0,0,0,0,0,0,0,0,0,0,0,0,0,0],"sum_hessian":[1.58E2,4E1,1.18E2,3E1,1E1,2.3E1,9.5E1,1.8E1,1.2E1,5E0,5E0,5E0,1.8E1,7.1E1,2.4E1],"tree_param":{"num_deleted":"0","num_feature":"23","num_nodes":"15","size_leaf_vector":"1"}},{"base_weights":[-1.1080684E-1,-1.7816352E0,7.388159E-1,-2.5291681E0,1.0384633E-1,4.030657E0,1.7993908E-1,-1.0002753E-1,4.129659E-2,2.0437572E-2,1.7053476E-1,-2.7728705E-2,7.6534465E-2],"categories":[],"categories_nodes":[],"categories_segments":[],"categories_sizes":[],"default_left":[0,0,0,0,0,0,0,0,0,0,0,0,0],"id":4,"left_children":[1,3,5,7,-1,9,11,-1,-1,-1,-1,-1,-1],"loss_changes":[2.1041176E2,2.1301593E2,1.7673805E2,1.5165771E2,0E0,6.662309E1,2.3070833E2,0E0,0E0,0E0,0E0,0E0,0E0],"parents":[2147483647,0,0,1,1,2,2,3,3,5,5,6,6],"right_children":[2,4,6,8,-1,10,12,-1,-1,-1,-1,-1,-1],"split_conditions":[9.52E1,7.0717645E0,2.7772728E-1,9.298936E-1,1.0384633E-1,1.6E-1,7.401299E-1,-1.0002753E-1,4.129659E-2,2.0437572E-2,1.7053476E-1,-2.7728705E-2,7.6534465E-2],"split_indices":[4,8,7,7,0,18,7,0,0,0,0,0,0],"split_type":[0,0,0,0,0,0,0,0,0,0,0,0,0],"sum_hessian":[1.44E2,4.8E1,9.6E1,4.3E1,5E0,1.2E1,8.4E1,3.6E1,7E0,5E0,7E0,5.8E1,2.6E1],"tree_param":{"num_deleted":"0","num_feature":"23","num_nodes":"13","size_leaf_vector":"1"}},{"base_weights":[-1.031742E-1,-5.961296E-1,5.8288994E0,-2.5705035E0,5.244456E-1,2.4756677E-1,5.0062332E-2,-2.9928302E-2,-1.4545418E-1,3.0122941E-2,-1.6957216E-1],"categories":[],"categories_nodes":[],"categories_segments":[],"categories_sizes":[],"default_left":[0,0,0,0,0,0,0,0,0,0,0],"id":5,"left_children":[1,3,5,7,9,-1,-1,-1,-1,-1,-1],"loss_changes":[4.5759155E2,3.2452222E2,8.847476E1,1.773024E2,2.8752466E2,0E0,0E0,0E0,0E0,0E0,0E0],"parents":[2147483647,0,0,1,1,2,2,3,3,4,4],"right_children":[2,4,6,8,10,-1,-1,-1,-1,-1,-1],"split_conditions":[2.5757222E3,4.2E1,3.8229507E-1,8.196335E-1,1.2328395E0,2.4756677E-1,5.0062332E-2,-2.9928302E-2,-1.4545418E-1,3.0122941E-2,-1.6957216E-1],"split_indices":[5,0,7,9,6,0,0,0,0,0,0],"split_type":[0,0,0,0,0,0,0,0,0,0,0],"sum_hessian":[1.53E2,1.43E2,1E1,5.1E1,9.2E1,5E0,5E0,3.2E1,1.9E1,8.7E1,5E0],"tree_param":{"num_deleted":"0","num_feature":"23","num_nodes":"11","size_leaf_vector":"1"}},{"base_weights":[-2.420641E-1,-2.4793556E0,6.1008626E-1,-3.908316E0,1.0513028E0,3.4854429E0,-2.3001888E-1,-1.8291493E-1,-5.596337E-2,1.14349045E-1,-4.6929408E-2,1.9988345E-1,1.9720059E-2,-5.140172E-2,5.079826E-2],"categories":[],"categories_nodes":[],"categories_segments":[],"categories_sizes":[],"default_left":[0,0,0,0,0,0,0,0,0,0,0,0,0,0,0],"id":6,"left_children":[1,3,5,7,9,11,13,-1,-1,-1,-1,-1,-1,-1,-1],"loss_changes":[2.7659064E2,2.1145297E2,2.5686935E2,1.0294534E2,1.0690846E2,2.0324112E2,2.4260828E2,0E0,0E0,0E0,0E0,0E0,0E0,0E0,0E0],"parents":[2147483647,0,0,1,1,2,2,3,3,4,4,5,5,6,6],"right_children":[2,4,6,8,10,12,14,-1,-1,-1,-1,-1,-1,-1,-1],"split_conditions":[9.49E1,1.1332653E0,2.0930232E-1,7E0,1.1E1,9.0278786E1,6.8E1,-1.8291493E-1,-5.596337E-2,1.14349045E-1,-4.6929408E-2,1.9988345E-1,1.9720059E-2,-5.140172E-2,5.079826E-2],"split_indices":[4,6,11,19,1,3,0,0,0,0,0,0,0,0,0],"split_type":[0,0,0,0,0,0,0,0,0,0,0,0,0,0,0],"sum_hessian":[1.41E2,3.8E1,1.03E2,2.7E1,1.1E1,2.2E1,8.1E1,1.1E1,1.6E1,5E0,6E0,9E0,1.3E1,4.6E1,3.5E1],"tree_param":{"num_deleted":"0","num_feature":"23","num_nodes":"15","size_leaf_vector":"1"}},{"base_weights":[6.834207E-2,2.6117823E0,-1.3850527E0,8.690016E-1,5.7961035E0,-4.232605E0,-1.8720884E-2,9.904543E-2,-2.9483067E-2,2.4172868E-1,1.0422688E-1,2.4988703E-2,-1.7400922E-1,-5.655007E-2,4.474798E-2],"categories":[],"categories_nodes":[],"categories_segments":[],"categories_sizes":[],"default_left":[0,0,0,0,0,0,0,0,0,0,0,0,0,0,0],"id":7,"left_children":[1,3,5,7,9,11,13,-1,-1,-1,-1,-1,-1,-1,-1],"loss_changes":[5.586451E2,2.9182037E2,3.712232E2,1.7881792E2,3.8014282E1,2.5832648E2,1.9467177E2,0E0,0E0,0E0,0E0,0E0,0E0,0E0,0E0],"parents":[2147483647,0,0,1,1,2,2,3,3,4,4,5,5,6,6],"right_children":[2,4,6,8,10,12,14,-1,-1,-1,-1,-1,-1,-1,-1],"split_conditions":[7.864724E-1,1.2789474E1,6.328125E0,7.428767E-1,6.052174E0,1.1764706E-1,8.94E1,9.904543E-2,-2.9483067E-2,2.4172868E-1,1.0422688E-1,2.4988703E-2,-1.7400922E-1,-5.655007E-2,4.474798E-2],"split_indices":[9,16,8,6,8,18,3,0,0,0,0,0,0,0,0],"split_type":[0,0,0,0,0,0,0,0,0,0,0,0,0,0,0],"sum_hessian":[1.47E2,5.3E1,9.4E1,3.6E1,1.7E1,2.9E1,6.5E1,1.5E1,2.1E1,6E0,1.1E1,7E0,2.2E1,2.9E1,3.6E1],"tree_param":{"num_deleted":"0","num_feature":"23","num_nodes":"15","size_leaf_vector":"1"}},{"base_weights":[3.7295008E-1,1.5734924E0,-1.7051848E0,3.467985E-2,3.6751256E0,8.324798E-1,-2.710933E0,-6.0834803E-2,9.181336E-2,-3.590695E-2,1.3361426E-1,-5.0475527E-2,1.2434944E-1,2.9358624E-2,-1.3139787E-1],"categories":[],"categories_nodes":[],"categories_segments":[],"categories_sizes":[],"default_left":[0,0,0,0,0,0,0,0,0,0,0,0,0,0,0],"id":8,"left_children":[1,3,5,7,9,11,13,-1,-1,-1,-1,-1,-1,-1,-1],"loss_changes":[3.7454388E2,3.05122E2,1.4582664E2,3.6864618E2,1.6404053E2,1.568051E2,2.5658728E2,0E0,0E0,0E0,0E0,0E0,0E0,0E0,0E0],"parents":[2147483647,0,0,1,1,2,2,3,3,4,4,5,5,6,6],"right_children":[2,4,6,8,10,12,14,-1,-1,-1,-1,-1,-1,-1,-1],"split_conditions":[8.136734E-1,6.407812E-1,1.7391305E-1,1.125E1,6.7741936E-1,4.895699E-1,4.062069E-1,-6.0834803E-2,9.181336E-2,-3.590695E-2,1.3361426E-1,-5.0475527E-2,1.2434944E-1,2.9358624E-2,-1.3139787E-1],"split_indices":[9,7,10,16,12,7,7,0,0,0,0,0,0,0,0],"split_type":[0,0,0,0,0,0,0,0,0,0,0,0,0,0,0],"sum_hessian":[1.46E2,9.3E1,5.3E1,5.5E1,3.8E1,1.5E1,3.8E1,3.3E1,2.2E1,5E0,3.3E1,9E0,6E0,1.2E1,2.6E1],"tree_param":{"num_deleted":"0","num_feature":"23","num_nodes":"15","size_leaf_vector":"1"}},{"base_weights":[-7.8705005E-2,-5.9661555E-1,5.3529224E0,-1.4577461E0,1.5520135E0,2.5782013E-1,1.4398098E-3,-1.0506143E-1,-9.656913E-3,-3.805922E-2,1.3573596E-1],"categories":[],"categories_nodes":[],"categories_segments":[],"categories_sizes":[],"default_left":[0,0,0,0,0,0,0,0,0,0,0],"id":9,"left_children":[1,3,5,7,9,-1,-1,-1,-1,-1,-1],"loss_changes":[4.2034753E2,2.5796204E2,2.1837225E2,2.2571321E2,3.4848578E2,0E0,0E0,0E0,0E0,0E0,0E0],"parents":[2147483647,0,0,1,1,2,2,3,3,4,4],"right_children":[2,4,6,8,10,-1,-1,-1,-1,-1,-1],"split_conditions":[2.5698352E3,9.78E1,3.1578946E-1,1E1,6.6E0,2.5782013E-1,1.4398098E-3,-1.0506143E-1,-9.656913E-3,-3.805922E-2,1.3573596E-1],"split_indices":[5,4,10,1,8,0,0,0,0,0,0],"split_type":[0,0,0,0,0,0,0,0,0,0,0],"sum_hessian":[1.46E2,1.35E2,1.1E1,9.7E1,3.8E1,6E0,5E0,3.3E1,6.4E1,2E1,1.8E1],"tree_param":{"num_deleted":"0","num_feature":"23","num_nodes":"11","size_leaf_vector":"1"}},{"base_weights":[4.153616E-1,1.236728E0,-1.7362705E0,-2.5899992E0,1.8263817E0,1.0576449E-1,-2.6768186E0,-1.3926984E-1,-1.7561063E-2,6.878391E-2,-5.1037714E-2,-1.1493139E-1,-2.1717098E-2],"categories":[],"categories_nodes":[],"categories_segments":[],"categories_sizes":[],"default_left":[0,0,0,0,0,0,0,0,0,0,0,0,0],"id":10,"left_children":[1,3,5,7,9,-1,11,-1,-1,-1,-1,-1,-1],"loss_changes":[2.620674E2,2.5051834E2,2.2135606E2,5.3663612E1,1.6275955E2,0E0,7.332382E1,0E0,0E0,0E0,0E0,0E0,0E0],"parents":[2147483647,0,0,1,1,2,2,3,3,4,4,6,6],"right_children":[2,4,6,8,10,-1,12,-1,-1,-1,-1,-1,-1],"split_conditions":[8.274461E-1,9.41E1,3.857143E0,7E0,6.9117646E0,1.0576449E-1,2.7659574E-1,-1.3926984E-1,-1.7561063E-2,6.878391E-2,-5.1037714E-2,-1.1493139E-1,-2.1717098E-2],"split_indices":[9,4,16,16,8,0,10,0,0,0,0,0,0],"split_type":[0,0,0,0,0,0,0,0,0,0,0,0,0],"sum_hessian":[1.44E2,1.05E2,3.9E1,1.3E1,9.2E1,5E0,3.4E1,5E0,8E0,8.2E1,1E1,2E1,1.4E1],"tree_param":{"num_deleted":"0","num_feature":"23","num_nodes":"13","size_leaf_vector":"1"}},{"base_weights":[3.9088532E-1,-9.809625E-1,2.1284418E0,-1.5669094E-1,-1.6752158E-1,4.3615937E0,-1.8164143E-2,-3.6011014E-2,9.626794E-2,8.123672E-3,1.7217588E-1,-1.4331809E-1,5.3832825E-2],"categories":[],"categories_nodes":[],"categories_segments":[],"categories_sizes":[],"default_left":[0,0,0,0,0,0,0,0,0,0,0,0,0],"id":11,"left_children":[1,3,5,7,-1,9,11,-1,-1,-1,-1,-1,-1],"loss_changes":[3.4084607E2,2.9891537E2,3.043331E2,2.5258295E2,0E0,1.685874E2,3.1193106E2,0E0,0E0,0E0,0E0,0E0,0E0],"parents":[2147483647,0,0,1,1,2,2,3,3,5,5,6,6],"right_children":[2,4,6,8,-1,10,12,-1,-1,-1,-1,-1,-1],"split_conditions":[9.818182E0,3.181818E-1,7.9903245E-1,8.061905E-1,-1.6752158E-1,2.2165625E3,6.3918366E0,-3.6011014E-2,9.626794E-2,8.123672E-3,1.7217588E-1,-1.4331809E-1,5.3832825E-2],"split_indices":[16,10,9,7,0,5,8,0,0,0,0,0,0],"split_type":[0,0,0,0,0,0,0,0,0,0,0,0,0],"sum_hessian":[1.39E2,7.8E1,6.1E1,6.8E1,1E1,2.9E1,3.2E1,5.3E1,1.5E1,8E0,2.1E1,8E0,2.4E1],"tree_param":{"num_deleted":"0","num_feature":"23","num_nodes":"13","size_leaf_vector":"1"}},{"base_weights":[1.5045117E-1,-3.3191094E-1,5.39754E0,2.574709E0,-8.308879E-1,2.2753362E-1,3.8538802E-2,-3.8704462E-2,1.4181477E-1,-7.39692E-2,1.4670379E-2],"categories":[],"categories_nodes":[],"categories_segments":[],"categories_sizes":[],"default_left":[0,0,0,0,0,0,0,0,0,0,0],"id":12,"left_children":[1,3,5,7,9,-1,-1,-1,-1,-1,-1],"loss_changes":[3.908273E2,2.0790411E2,9.300873E1,1.8861316E2,2.6664044E2,0E0,0E0,0E0,0E0,0E0,0E0],"parents":[2147483647,0,0,1,1,2,2,3,3,4,4],"right_children":[2,4,6,8,10,-1,-1,-1,-1,-1,-1],"split_conditions":[2.5698352E3,4.5E0,1.2E1,2.8602272E-1,4.8E1,2.2753362E-1,3.8538802E-2,-3.8704462E-2,1.4181477E-1,-7.39692E-2,1.4670379E-2],"split_indices":[5,16,1,7,0,0,0,0,0,0,0],"split_type":[0,0,0,0,0,0,0,0,0,0,0],"sum_hessian":[1.5E2,1.39E2,1.1E1,1.9E1,1.2E2,6E0,5E0,7E0,1.2E1,5.3E1,6.7E1],"tree_param":{"num_deleted":"0","num_feature":"23","num_nodes":"11","size_leaf_vector":"1"}},{"base_weights":[3.443815E-1,-9.720208E-2,5.051409E0,-1.1346915E0,1.3395529E0,2.234599E-1,4.8853766E-2,7.161085E-2,-6.841538E-2,-7.4642174E-2,6.99241E-2],"categories":[],"categories_nodes":[],"categories_segments":[],"categories_sizes":[],"default_left":[0,0,0,0,0,0,0,0,0,0,0],"id":13,"left_children":[1,3,5,7,9,-1,-1,-1,-1,-1,-1],"loss_changes":[3.15241E2,2.1013344E2,7.787564E1,3.4172546E2,2.353738E2,0E0,0E0,0E0,0E0,0E0,0E0],"parents":[2147483647,0,0,1,1,2,2,3,3,4,4],"right_children":[2,4,6,8,10,-1,-1,-1,-1,-1,-1],"split_conditions":[2.5757222E3,9.818182E0,3.8229507E-1,9.52381E-2,8E0,2.234599E-1,4.8853766E-2,7.161085E-2,-6.841538E-2,-7.4642174E-2,6.99241E-2],"split_indices":[5,16,7,18,1,0,0,0,0,0,0],"split_type":[0,0,0,0,0,0,0,0,0,0,0],"sum_hessian":[1.48E2,1.37E2,1.1E1,8E1,5.7E1,5E0,6E0,1.9E1,6.1E1,1.1E1,4.6E1],"tree_param":{"num_deleted":"0","num_feature":"23","num_nodes":"11","size_leaf_vector":"1"}},{"base_weights":[-3.4535345E-1,-1.9101897E0,4.0825132E-1,4.685632E-2,-2.6760507E0,3.9129348E0,-1.8598187E-1,1.5314564E-2,-1.3718806E-1,-2.4430046E-2,2.19029E-1,1.002813E-2,-1.679883E-1],"categories":[],"categories_nodes":[],"categories_segments":[],"categories_sizes":[],"default_left":[0,0,0,0,0,0,0,0,0,0,0,0,0],"id":14,"left_children":[1,3,5,-1,7,9,11,-1,-1,-1,-1,-1,-1],"loss_changes":[1.780216E2,1.392133E2,2.1574405E2,0E0,2.545242E2,2.5537631E2,2.5704083E2,0E0,0E0,0E0,0E0,0E0,0E0],"parents":[2147483647,0,0,1,1,2,2,4,4,5,5,6,6],"right_children":[2,4,6,-1,8,10,12,-1,-1,-1,-1,-1,-1],"split_conditions":[8.835541E1,6.1285715E0,8.918977E1,4.685632E-2,2.1011807E3,1.764706E-1,1.2224444E0,1.5314564E-2,-1.3718806E-1,-2.4430046E-2,2.19029E-1,1.002813E-2,-1.679883E-1],"split_indices":[3,8,3,0,5,18,6,0,0,0,0,0,0],"split_type":[0,0,0,0,0,0,0,0,0,0,0,0,0],"sum_hessian":[1.47E2,4.7E1,1E2,8E0,3.9E1,1.3E1,8.7E1,1.5E1,2.4E1,6E0,7E0,8.1E1,6E0],"tree_param":{"num_deleted":"0","num_feature":"23","num_nodes":"13","size_leaf_vector":"1"}},{"base_weights":[-1.3089369E-1,-1.2083865E0,1.5414251E0,1.8813452E0,-2.0552752E0,6.5329677E-1,4.520832E0,1.0869259E-1,-6.02992E-2,1.1665829E-1,-7.996681E-2,1.3630587E-1,-1.1543346E-2,5.46033E-2,1.6683625E-1],"categories":[],"categories_nodes":[],"categories_segments":[],"categories_sizes":[],"default_left":[0,0,0,0,0,0,0,0,0,0,0,0,0,0,0],"id":15,"left_children":[1,3,5,7,9,11,13,-1,-1,-1,-1,-1,-1,-1,-1],"loss_changes":[2.9006268E2,2.6425293E2,1.5821007E2,1.6447989E2,3.0306137E2,2.1153188E2,1.5402069E1,0E0,0E0,0E0,0E0,0E0,0E0,0E0,0E0],"parents":[2147483647,0,0,1,1,2,2,3,3,4,4,5,5,6,6],"right_children":[2,4,6,8,10,12,14,-1,-1,-1,-1,-1,-1,-1,-1],"split_conditions":[9.818182E0,7.460358E-1,3.902439E-1,2.5581396E-1,5.8404255E0,1.904762E-1,2.2792068E3,1.0869259E-1,-6.02992E-2,1.1665829E-1,-7.996681E-2,1.3630587E-1,-1.1543346E-2,5.46033E-2,1.6683625E-1],"split_indices":[16,9,17,17,8,11,5,0,0,0,0,0,0,0,0],"split_type":[0,0,0,0,0,0,0,0,0,0,0,0,0,0,0],"sum_hessian":[1.57E2,9.6E1,6.1E1,2E1,7.6E1,4.9E1,1.2E1,1.4E1,6E0,6E0,7E1,9E0,4E1,5E0,7E0],"tree_param":{"num_deleted":"0","num_feature":"23","num_nodes":"15","size_leaf_vector":"1"}},{"base_weights":[-7.056423E-2,-1.521564E0,9.191544E-1,-2.6359038E0,1.4584851E-1,2.8001454E0,-6.258442E-1,2.757868E-2,-1.07335545E-1,1.145504E-1,-7.257891E-2,-3.2879774E-2,7.914748E-2],"categories":[],"categories_nodes":[],"categories_segments":[],"categories_sizes":[],"default_left":[0,0,0,0,0,0,0,0,0,0,0,0,0],"id":16,"left_children":[1,3,5,7,-1,9,11,-1,-1,-1,-1,-1,-1],"loss_changes":[2.2281877E2,4.7263766E2,2.7195587E2,1.920918E2,0E0,2.4238156E2,8.4811485E1,0E0,0E0,0E0,0E0,0E0,0E0],"parents":[2147483647,0,0,1,1,2,2,3,3,5,5,6,6],"right_children":[2,4,6,8,-1,10,12,-1,-1,-1,-1,-1,-1],"split_conditions":[4.6E1,2.5419048E3,2E0,4.5E0,1.4584851E-1,9.271724E1,3.6363637E-1,2.757868E-2,-1.07335545E-1,1.145504E-1,-7.257891E-2,-3.2879774E-2,7.914748E-2],"split_indices":[0,5,15,19,0,3,10,0,0,0,0,0,0],"split_type":[0,0,0,0,0,0,0,0,0,0,0,0,0],"sum_hessian":[1.51E2,6.1E1,9E1,5.3E1,8E0,4E1,5E1,1.1E1,4.2E1,3.4E1,6E0,4.5E1,5E0],"tree_param":{"num_deleted":"0","num_feature":"23","num_nodes":"13","size_leaf_vector":"1"}},{"base_weights":[-1.2107594E-1,-6.9412345E-1,2.6681235E0,-1.0895548E0,1.2301001E-1,7.255603E-1,2.298619E-1,-4.2930517E-2,1.0038972E-1,1.19551994E-1,-8.750191E-2],"categories":[],"categories_nodes":[],"categories_segments":[],"categories_sizes":[],"default_left":[0,0,0,0,0,0,0,0,0,0,0],"id":17,"left_children":[1,3,5,7,-1,9,-1,-1,-1,-1,-1],"loss_changes":[2.4406696E2,2.482062E2,2.3691476E2,1.888673E2,0E0,2.7309433E2,0E0,0E0,0E0,0E0,0E0],"parents":[2147483647,0,0,1,1,2,2,3,3,5,5],"right_children":[2,4,6,8,-1,10,-1,-1,-1,-1,-1],"split_conditions":[8.7011236E-1,2.025E1,2.4416428E3,7.132653E0,1.2301001E-1,2.2759565E3,2.298619E-1,-4.2930517E-2,1.0038972E-1,1.19551994E-1,-8.750191E-2],"split_indices":[7,16,5,8,0,5,0,0,0,0,0],"split_type":[0,0,0,0,0,0,0,0,0,0,0],"sum_hessian":[1.49E2,1.25E2,2.4E1,1.17E2,8E0,1.9E1,5E0,1.1E2,7E0,1E1,9E0],"tree_param":{"num_deleted":"0","num_feature":"23","num_nodes":"11","size_leaf_vector":"1"}},{"base_weights":[-1.5126923E-1,-6.023341E-1,4.587071E0,2.034165E0,-1.0395216E0,1.9326206E-1,3.255161E-2,-1.2354013E-2,1.3837472E-1,-6.730459E-2,8.863747E-3],"categories":[],"categories_nodes":[],"categories_segments":[],"categories_sizes":[],"default_left":[0,0,0,0,0,0,0,0,0,0,0],"id":18,"left_children":[1,3,5,7,9,-1,-1,-1,-1,-1,-1],"loss_changes":[3.1985376E2,1.6164409E2,6.670749E1,1.320291E2,1.9356473E2,0E0,0E0,0E0,0E0,0E0,0E0],"parents":[2147483647,0,0,1,1,2,2,3,3,4,4],"right_children":[2,4,6,8,10,-1,-1,-1,-1,-1,-1],"split_conditions":[2.5757222E3,3.857143E0,9.0278786E1,4.4679013E-1,9.818182E0,1.9326206E-1,3.255161E-2,-1.2354013E-2,1.3837472E-1,-6.730459E-2,8.863747E-3],"split_indices":[5,19,3,7,19,0,0,0,0,0,0],"split_type":[0,0,0,0,0,0,0,0,0,0,0],"sum_hessian":[1.46E2,1.35E2,1.1E1,1.8E1,1.17E2,6E0,5E0,1E1,8E0,6.1E1,5.6E1],"tree_param":{"num_deleted":"0","num_feature":"23","num_nodes":"11","size_leaf_vector":"1"}},{"base_weights":[-2.4807864E-1,-1.6666244E0,5.755518E-1,7.656505E-1,-2.3360739E0,1.8528066E0,-9.197004E-1,-3.3318397E-2,8.2878694E-2,-9.725931E-2,2.5298314E-2,2.5061855E-1,1.810768E-2,3.5218345E-3,-1.3557905E-1],"categories":[],"categories_nodes":[],"categories_segments":[],"categories_sizes":[],"default_left":[0,0,0,0,0,0,0,0,0,0,0,0,0,0,0],"id":19,"left_children":[1,3,5,7,9,11,13,-1,-1,-1,-1,-1,-1,-1,-1],"loss_changes":[1.7187584E2,9.228984E1,1.8148767E2,5.5671436E1,1.3051505E2,3.9962494E2,1.6751967E2,0E0,0E0,0E0,0E0,0E0,0E0,0E0,0E0],"parents":[2147483647,0,0,1,1,2,2,3,3,4,4,5,5,6,6],"right_children":[2,4,6,8,10,12,14,-1,-1,-1,-1,-1,-1,-1,-1],"split_conditions":[9.53E1,6.2421055E0,8.235294E-1,2E0,8.917391E1,6.052174E0,9.263448E1,-3.3318397E-2,8.2878694E-2,-9.725931E-2,2.5298314E-2,2.5061855E-1,1.810768E-2,3.5218345E-3,-1.3557905E-1],"split_indices":[4,8,12,2,3,8,3,0,0,0,0,0,0,0,0],"split_type":[0,0,0,0,0,0,0,0,0,0,0,0,0,0,0],"sum_hessian":[1.43E2,5.2E1,9.1E1,1.1E1,4.1E1,4.9E1,4.2E1,6E0,5E0,3.2E1,9E0,6E0,4.3E1,3.4E1,8E0],"tree_param":{"num_deleted":"0","num_feature":"23","num_nodes":"15","size_leaf_vector":"1"}},{"base_weights":[8.481134E-2,-2.2150269E0,1.1911662E0,-3.2328517E0,1.3360076E-1,-8.51676E-2,3.139218E0,-1.7046517E-2,-1.1729944E-1,7.731631E-2,-3.9934482E-2,1.595613E-1,3.9389275E-2],"categories":[],"categories_nodes":[],"categories_segments":[],"categories_sizes":[],"default_left":[0,0,0,0,0,0,0,0,0,0,0,0,0],"id":20,"left_children":[1,3,5,7,-1,9,11,-1,-1,-1,-1,-1,-1],"loss_changes":[3.6861945E2,3.4718457E2,2.4572548E2,6.9098145E1,0E0,2.0859203E2,1.379484E2,0E0,0E0,0E0,0E0,0E0,0E0],"parents":[2147483647,0,0,1,1,2,2,3,3,5,5,6,6],"right_children":[2,4,6,8,-1,10,12,-1,-1,-1,-1,-1,-1],"split_conditions":[1E1,2.5186365E3,6.421978E-1,6.25E0,1.3360076E-1,1.2E1,2E0,-1.7046517E-2,-1.1729944E-1,7.731631E-2,-3.9934482E-2,1.595613E-1,3.9389275E-2],"split_indices":[1,5,7,8,0,1,15,0,0,0,0,0,0],"split_type":[0,0,0,0,0,0,0,0,0,0,0,0,0],"sum_hessian":[1.41E2,4.5E1,9.6E1,4E1,5E0,5.9E1,3.7E1,9E0,3.1E1,1.8E1,4.1E1,1.5E1,2.2E1],"tree_param":{"num_deleted":"0","num_feature":"23","num_nodes":"13","size_leaf_vector":"1"}},{"base_weights":[-3.4793568E-1,-1.8902453E0,4.868703E-1,-2.8341236E0,1.0210188E-1,3.3837867E0,-4.5983943E-1,-4.289482E-3,-1.0352448E-1,5.3400367E-2,1.885291E-1,-2.981789E-2,9.802053E-2],"categories":[],"categories_nodes":[],"categories_segments":[],"categories_sizes":[],"default_left":[0,0,0,0,0,0,0,0,0,0,0,0,0],"id":21,"left_children":[1,3,5,7,-1,9,11,-1,-1,-1,-1,-1,-1],"loss_changes":[1.9824675E2,2.8882056E2,2.7882788E2,7.521774E1,0E0,8.988995E1,1.5863885E2,0E0,0E0,0E0,0E0,0E0,0E0],"parents":[2147483647,0,0,1,1,2,2,3,3,5,5,6,6],"right_children":[2,4,6,8,-1,10,12,-1,-1,-1,-1,-1,-1],"split_conditions":[4.2E1,2.5419048E3,2.4E-1,7.608265E-1,1.0210188E-1,2.1052632E-1,3.902439E-1,-4.289482E-3,-1.0352448E-1,5.3400367E-2,1.885291E-1,-2.981789E-2,9.802053E-2],"split_indices":[0,5,13,9,0,18,17,0,0,0,0,0,0],"split_type":[0,0,0,0,0,0,0,0,0,0,0,0,0],"sum_hessian":[1.5E2,5.2E1,9.8E1,4.5E1,7E0,2.3E1,7.5E1,9E0,3.6E1,1.7E1,6E0,6.7E1,8E0],"tree_param":{"num_deleted":"0","num_feature":"23","num_nodes":"13","size_leaf_vector":"1"}},{"base_weights":[-2.9434797E-1,-6.582367E-1,1.3881056E-1,-2.0424285E0,6.027209E-1,-1.3647161E-1,-2.3952862E-2,-4.919261E-2,5.408094E-2],"categories":[],"categories_nodes":[],"categories_segments":[],"categories_sizes":[],"default_left":[0,0,0,0,0,0,0,0,0],"id":22,"left_children":[1,3,-1,5,7,-1,-1,-1,-1],"loss_changes":[2.6019562E2,2.3881186E2,0E0,1.9274774E2,1.9973953E2,0E0,0E0,0E0,0E0],"parents":[2147483647,0,0,1,1,3,3,4,4],"right_children":[2,4,-1,6,8,-1,-1,-1,-1],"split_conditions":[2.5757222E3,4.8E1,1.3881056E-1,2.1689443E3,4.678E-1,-1.3647161E-1,-2.3952862E-2,-4.919261E-2,5.408094E-2],"split_indices":[5,0,0,5,7,0,0,0,0],"split_type":[0,0,0,0,0,0,0,0,0],"sum_hessian":[1.41E2,1.33E2,8E0,6.3E1,7E1,1.9E1,4.4E1,2.4E1,4.6E1],"tree_param":{"num_deleted":"0","num_feature":"23","num_nodes":"9","size_leaf_vector":"1"}},{"base_weights":[-1.269285E-2,1.703837E0,-1.2744783E0,4.3270937E-1,4.593945E0,2.2430413E0,-1.8896726E0,6.9912836E-2,-2.7487688E-2,1.909687E-1,5.5604324E-2,1.0341331E-1,4.6399315E-3,-9.838486E-2,-0E0],"categories":[],"categories_nodes":[],"categories_segments":[],"categories_sizes":[],"default_left":[0,0,0,0,0,0,0,0,0,0,0,0,0,0,0],"id":23,"left_children":[1,3,5,7,9,11,13,-1,-1,-1,-1,-1,-1,-1,-1],"loss_changes":[3.073533E2,2.1393275E2,1.8574509E2,1.1761574E2,5.968747E1,2.9821991E1,1.874274E2,0E0,0E0,0E0,0E0,0E0,0E0,0E0,0E0],"parents":[2147483647,0,0,1,1,2,2,3,3,4,4,5,5,6,6],"right_children":[2,4,6,8,10,12,14,-1,-1,-1,-1,-1,-1,-1,-1],"split_conditions":[7.9197496E-1,3.5714287E-1,3.857143E0,7.428767E-1,9.76E1,8.3671695E-1,3.3333333E0,6.9912836E-2,-2.7487688E-2,1.909687E-1,5.5604324E-2,1.0341331E-1,4.6399315E-3,-9.838486E-2,-0E0],"split_indices":[9,18,16,6,4,9,14,0,0,0,0,0,0,0,0],"split_type":[0,0,0,0,0,0,0,0,0,0,0,0,0,0,0],"sum_hessian":[1.38E2,5.8E1,8E1,4.2E1,1.6E1,1.1E1,6.9E1,1.7E1,2.5E1,8E0,8E0,6E0,5E0,3.9E1,3E1],"tree_param":{"num_deleted":"0","num_feature":"23","num_nodes":"15","size_leaf_vector":"1"}},{"base_weights":[1.05135664E-1,5.143677E-1,-2.299884E0,1.5867588E-1,1.7509498E-1,-5.2891076E-1,-1.4054596E-1,-3.0642034E-2,4.636091E-2,-7.5456165E-2,3.8959946E-2],"categories":[],"categories_nodes":[],"categories_segments":[],"categories_sizes":[],"default_left":[0,0,0,0,0,0,0,0,0,0,0],"id":24,"left_children":[1,3,5,7,-1,9,-1,-1,-1,-1,-1],"loss_changes":[1.4910489E2,2.412452E2,8.535961E1,2.0633228E2,0E0,6.159265E1,0E0,0E0,0E0,0E0,0E0],"parents":[2147483647,0,0,1,1,2,2,3,3,5,5],"right_children":[2,4,6,8,-1,10,-1,-1,-1,-1,-1],"split_conditions":[3.8333333E-1,2.6104375E3,2.3143296E3,2.777778E-1,1.7509498E-1,2.1836956E3,-1.4054596E-1,-3.0642034E-2,4.636091E-2,-7.5456165E-2,3.8959946E-2],"split_indices":[11,5,5,11,0,5,0,0,0,0,0],"split_type":[0,0,0,0,0,0,0,0,0,0,0],"sum_hessian":[1.48E2,1.28E2,2E1,1.22E2,6E0,1.3E1,7E0,6.6E1,5.6E1,6E0,7E0],"tree_param":{"num_deleted":"0","num_feature":"23","num_nodes":"11","size_leaf_vector":"1"}},{"base_weights":[3.2501104E-1,1.6502901E0,-7.969513E-1,-1.7912959E0,2.7257078E0,-1.4246399E0,2.5092974E0,-1.1779239E-2,-1.0136861E-1,1.2094605E-1,2.4485769E-2,2.8731382E-2,-6.445334E-2,1.3863973E-1,-2.5550395E-2],"categories":[],"categories_nodes":[],"categories_segments":[],"categories_sizes":[],"default_left":[0,0,0,0,0,0,0,0,0,0,0,0,0,0,0],"id":25,"left_children":[1,3,5,7,9,11,13,-1,-1,-1,-1,-1,-1,-1,-1],"loss_changes":[2.3055478E2,2.7301343E2,1.8093211E2,3.5431297E1,1.2813748E2,1.2886436E2,1.0913526E2,0E0,0E0,0E0,0E0,0E0,0E0,0E0,0E0],"parents":[2147483647,0,0,1,1,2,2,3,3,4,4,5,5,6,6],"right_children":[2,4,6,8,10,12,14,-1,-1,-1,-1,-1,-1,-1,-1],"split_conditions":[7.967857E-1,9.51E1,1.44E1,6.5333333E0,8.181818E-1,1.1111111E-1,1.2E1,-1.1779239E-2,-1.0136861E-1,1.2094605E-1,2.4485769E-2,2.8731382E-2,-6.445334E-2,1.3863973E-1,-2.5550395E-2],"split_indices":[6,4,19,8,12,18,1,0,0,0,0,0,0,0,0],"split_type":[0,0,0,0,0,0,0,0,0,0,0,0,0,0,0],"sum_hessian":[1.51E2,6.9E1,8.2E1,1.6E1,5.3E1,7E1,1.2E1,1E1,6E0,3E1,2.3E1,1.6E1,5.4E1,7E0,5E0],"tree_param":{"num_deleted":"0","num_feature":"23","num_nodes":"15","size_leaf_vector":"1"}},{"base_weights":[2.4617952E-1,2.6506295E0,-5.7578933E-1,2.2432932E-1,4.4027357E0,-2.5004074E-1,-1.6655481E-1,-1.1808533E-1,8.365772E-2,4.372605E-2,1.7237514E-1,-3.834067E-2,3.978598E-2],"categories":[],"categories_nodes":[],"categories_segments":[],"categories_sizes":[],"default_left":[0,0,0,0,0,0,0,0,0,0,0,0,0],"id":26,"left_children":[1,3,5,7,9,11,-1,-1,-1,-1,-1,-1,-1],"loss_changes":[3.1042917E2,1.6575656E2,1.8397235E2,2.2408292E2,7.0630066E1,1.8484448E2,0E0,0E0,0E0,0E0,0E0,0E0,0E0],"parents":[2147483647,0,0,1,1,2,2,3,3,4,4,5,5],"right_children":[2,4,6,8,10,12,-1,-1,-1,-1,-1,-1,-1],"split_conditions":[7.606555E-1,2.2584316E3,1.2224444E0,5.1393443E-1,7.7272725E-1,9.529411E0,-1.6655481E-1,-1.1808533E-1,8.365772E-2,4.372605E-2,1.7237514E-1,-3.834067E-2,3.978598E-2],"split_indices":[9,5,6,7,12,16,0,0,0,0,0,0,0],"split_type":[0,0,0,0,0,0,0,0,0,0,0,0,0],"sum_hessian":[1.53E2,3.8E1,1.15E2,1.7E1,2.1E1,1.1E2,5E0,6E0,1.1E1,8E0,1.3E1,6.7E1,4.3E1],"tree_param":{"num_deleted":"0","num_feature":"23","num_nodes":"13","size_leaf_vector":"1"}},{"base_weights":[-7.109536E-2,1.1997979E0,-1.1240549E0,-7.639048E-2,1.8129337E0,-1.578514E0,5.9045736E-2,1.7080355E-2,1.4924806E-1,-1.2062921E-1,-2.9650917E-2],"categories":[],"categories_nodes":[],"categories_segments":[],"categories_sizes":[],"default_left":[0,0,0,0,0,0,0,0,0,0,0],"id":27,"left_children":[1,3,5,-1,7,9,-1,-1,-1,-1,-1],"loss_changes":[1.9536009E2,1.6046121E2,1.1844275E2,0E0,2.1963226E2,9.1887634E1,0E0,0E0,0E0,0E0,0E0],"parents":[2147483647,0,0,1,1,2,2,4,4,5,5],"right_children":[2,4,6,-1,8,10,-1,-1,-1,-1,-1],"split_conditions":[7.967857E-1,8.663333E1,4.347826E-1,-7.639048E-2,3E0,8.569318E-1,5.9045736E-2,1.7080355E-2,1.4924806E-1,-1.2062921E-1,-2.9650917E-2],"split_indices":[6,3,18,0,2,6,0,0,0,0,0],"split_type":[0,0,0,0,0,0,0,0,0,0,0],"sum_hessian":[1.42E2,6.4E1,7.8E1,8E0,5.6E1,6.9E1,9E0,4.2E1,1.4E1,1.1E1,5.8E1],"tree_param":{"num_deleted":"0","num_feature":"23","num_nodes":"11","size_leaf_vector":"1"}},{"base_weights":[1.452713E-1,-1.2770511E0,1.2019274E0,2.452003E0,-2.0826087E0,3.8030653E0,-6.477958E-2,-0E0,1.2628624E-1,-9.031131E-2,5.8850005E-2,1.6888471E-1,-1.681194E-2,-3.484085E-2,9.820128E-2],"categories":[],"categories_nodes":[],"categories_segments":[],"categories_sizes":[],"default_left":[0,0,0,0,0,0,0,0,0,0,0,0,0,0,0],"id":28,"left_children":[1,3,5,7,9,11,13,-1,-1,-1,-1,-1,-1,-1,-1],"loss_changes":[2.2245651E2,1.9927838E2,2.8242657E2,5.1893837E1,2.1119905E2,2.3199112E2,2.2252031E2,0E0,0E0,0E0,0E0,0E0,0E0,0E0,0E0],"parents":[2147483647,0,0,1,1,2,2,3,3,4,4,5,5,6,6],"right_children":[2,4,6,8,10,12,14,-1,-1,-1,-1,-1,-1,-1,-1],"split_conditions":[4.8E1,3.857143E0,1.4444444E0,3.1E1,2.5419048E3,3.3333334E-1,8.4E-1,-0E0,1.2628624E-1,-9.031131E-2,5.8850005E-2,1.6888471E-1,-1.681194E-2,-3.484085E-2,9.820128E-2],"split_indices":[0,19,15,0,5,17,7,0,0,0,0,0,0,0,0],"split_type":[0,0,0,0,0,0,0,0,0,0,0,0,0,0,0],"sum_hessian":[1.44E2,6.1E1,8.3E1,1E1,5.1E1,2.6E1,5.7E1,5E0,5E0,4.2E1,9E0,1.8E1,8E0,4.4E1,1.3E1],"tree_param":{"num_deleted":"0","num_feature":"23","num_nodes":"15","size_leaf_vector":"1"}},{"base_weights":[1.0377598E-1,9.9523944E-1,-1.1452751E0,4.0860903E-1,1.5265696E-1,1.6848998E0,-2.01512E0,1.10917985E-1,-9.644851E-3,-2.6355695E-2,1.3591361E-1,3.651675E-2,-8.689702E-2],"categories":[],"categories_nodes":[],"categories_segments":[],"categories_sizes":[],"default_left":[0,0,0,0,0,0,0,0,0,0,0,0,0],"id":29,"left_children":[1,3,5,7,-1,9,11,-1,-1,-1,-1,-1,-1],"loss_changes":[1.714541E2,2.0920721E2,1.6451172E2,1.9855122E2,0E0,1.26495926E2,1.5034833E2,0E0,0E0,0E0,0E0,0E0,0E0],"parents":[2147483647,0,0,1,1,2,2,3,3,5,5,6,6],"right_children":[2,4,6,8,-1,10,12,-1,-1,-1,-1,-1,-1],"split_conditions":[8.4E-1,2.5757222E3,4.5E0,2.5E-1,1.5265696E-1,2.7E0,7.759015E-1,1.10917985E-1,-9.644851E-3,-2.6355695E-2,1.3591361E-1,3.651675E-2,-8.689702E-2],"split_indices":[12,5,16,13,0,16,9,0,0,0,0,0,0],"split_type":[0,0,0,0,0,0,0,0,0,0,0,0,0],"sum_hessian":[1.5E2,8.8E1,6.2E1,7.9E1,9E0,1.4E1,4.8E1,1.3E1,6.6E1,8E0,6E0,1E1,3.8E1],"tree_param":{"num_deleted":"0","num_feature":"23","num_nodes":"13","size_leaf_vector":"1"}},{"base_weights":[-2.169798E-2,-2.0740247E0,4.633274E-1,-4.719005E0,1.8585165E-1,2.4293275E0,-2.8115276E-1,-5.2298307E-2,-1.778771E-1,5.7384886E-2,-7.165734E-2,2.7178189E-2,1.8019827E-1,4.420504E-2,-4.5060944E-2],"categories":[],"categories_nodes":[],"categories_segments":[],"categories_sizes":[],"default_left":[0,0,0,0,0,0,0,0,0,0,0,0,0,0,0],"id":30,"left_children":[1,3,5,7,9,11,13,-1,-1,-1,-1,-1,-1,-1,-1],"loss_changes":[1.5602354E2,1.8334053E2,1.8685977E2,2.5909637E1,8.8927704E1,1.7639601E2,2.0366719E2,0E0,0E0,0E0,0E0,0E0,0E0,0E0,0E0],"parents":[2147483647,0,0,1,1,2,2,3,3,4,4,5,5,6,6],"right_children":[2,4,6,8,10,12,14,-1,-1,-1,-1,-1,-1,-1,-1],"split_conditions":[9.43E1,2.4E-1,2.3076923E-1,9.22E1,2.9411766E-1,3E0,7.8420377E-1,-5.2298307E-2,-1.778771E-1,5.7384886E-2,-7.165734E-2,2.7178189E-2,1.8019827E-1,4.420504E-2,-4.5060944E-2],"split_indices":[4,11,11,4,11,2,9,0,0,0,0,0,0,0,0],"split_type":[0,0,0,0,0,0,0,0,0,0,0,0,0,0,0],"sum_hessian":[1.52E2,2.8E1,1.24E2,1.2E1,1.6E1,3.3E1,9.1E1,5E0,7E0,1E1,6E0,2.5E1,8E0,3.7E1,5.4E1],"tree_param":{"num_deleted":"0","num_feature":"23","num_nodes":"15","size_leaf_vector":"1"}},{"base_weights":[2.5225845E-1,-2.052882E0,6.9552E-1,1.6270341E-2,-3.3673823E0,2.0591586E0,-6.4071214E-1,-1.1006997E-2,-1.35443E-1,8.429801E-2,-4.013334E-2,-3.451635E-2,1.0033325E-1],"categories":[],"categories_nodes":[],"categories_segments":[],"categories_sizes":[],"default_left":[0,0,0,0,0,0,0,0,0,0,0,0,0],"id":31,"left_children":[1,3,5,-1,7,9,11,-1,-1,-1,-1,-1,-1],"loss_changes":[1.5850931E2,9.035073E1,2.4022577E2,0E0,5.2772247E1,1.7402603E2,1.42727E2,0E0,0E0,0E0,0E0,0E0,0E0],"parents":[2147483647,0,0,1,1,2,2,4,4,5,5,6,6],"right_children":[2,4,6,-1,8,10,12,-1,-1,-1,-1,-1,-1],"split_conditions":[8E0,6.2612906E0,1.5E0,1.6270341E-2,4.1022727E-1,3.4042552E-1,3.5714287E-1,-1.1006997E-2,-1.35443E-1,8.429801E-2,-4.013334E-2,-3.451635E-2,1.0033325E-1],"split_indices":[1,8,15,0,7,10,21,0,0,0,0,0,0],"split_type":[0,0,0,0,0,0,0,0,0,0,0,0,0],"sum_hessian":[1.51E2,2.3E1,1.28E2,8E0,1.5E1,6.3E1,6.5E1,5E0,1E1,5.2E1,1.1E1,5.9E1,6E0],"tree_param":{"num_deleted":"0","num_feature":"23","num_nodes":"13","size_leaf_vector":"1"}},{"base_weights":[-1.819463E-1,-5.6757796E-1,3.7825563E0,-1.8877056E0,5.470581E-1,1.6847144E-1,1.6060771E-2,-1.2722413E-1,-1.660003E-2,9.935624E-2,-3.2343872E-2],"categories":[],"categories_nodes":[],"categories_segments":[],"categories_sizes":[],"default_left":[0,0,0,0,0,0,0,0,0,0,0],"id":32,"left_children":[1,3,5,7,9,-1,-1,-1,-1,-1,-1],"loss_changes":[2.2436777E2,1.9991159E2,6.829578E1,1.8758408E2,3.4076562E2,0E0,0E0,0E0,0E0,0E0,0E0],"parents":[2147483647,0,0,1,1,2,2,3,3,4,4],"right_children":[2,4,6,8,10,-1,-1,-1,-1,-1,-1],"split_conditions":[2.5757222E3,4.8E1,3.1578946E-1,2.1805574E3,1.5E0,1.6847144E-1,1.6060771E-2,-1.2722413E-1,-1.660003E-2,9.935624E-2,-3.2343872E-2],"split_indices":[5,0,10,5,15,0,0,0,0,0,0],"split_type":[0,0,0,0,0,0,0,0,0,0,0],"sum_hessian":[1.43E2,1.32E2,1.1E1,6E1,7.2E1,6E0,5E0,2E1,4E1,2.6E1,4.6E1],"tree_param":{"num_deleted":"0","num_feature":"23","num_nodes":"11","size_leaf_vector":"1"}},{"base_weights":[1.1195346E-1,-8.3868426E-1,1.5741996E0,6.495996E-2,-4.3437343E0,-5.617507E-1,2.853526E0,-8.136653E-2,3.137703E-2,-4.2149644E-2,-1.7346513E-1,8.703742E-2,-6.1986666E-2,1.301897E-1,2.6528206E-2],"categories":[],"categories_nodes":[],"categories_segments":[],"categories_sizes":[],"default_left":[0,0,0,0,0,0,0,0,0,0,0,0,0,0,0],"id":33,"left_children":[1,3,5,7,9,11,13,-1,-1,-1,-1,-1,-1,-1,-1],"loss_changes":[2.1151822E2,2.9409702E2,1.6830649E2,2.0915883E2,6.0475464E1,1.3661128E2,1.0092267E2,0E0,0E0,0E0,0E0,0E0,0E0,0E0,0E0],"parents":[2147483647,0,0,1,1,2,2,3,3,4,4,5,5,6,6],"right_children":[2,4,6,8,10,12,14,-1,-1,-1,-1,-1,-1,-1,-1],"split_conditions":[9.818182E0,3.1034482E-1,9.56E1,9.43E1,9.59E1,2.9508197E-1,8.301087E-1,-8.136653E-2,3.137703E-2,-4.2149644E-2,-1.7346513E-1,8.703742E-2,-6.1986666E-2,1.301897E-1,2.6528206E-2],"split_indices":[19,10,4,4,4,13,6,0,0,0,0,0,0,0,0],"split_type":[0,0,0,0,0,0,0,0,0,0,0,0,0,0,0],"sum_hessian":[1.48E2,9E1,5.8E1,7.3E1,1.7E1,2.2E1,3.6E1,1.8E1,5.5E1,7E0,1E1,6E0,1.6E1,1.9E1,1.7E1],"tree_param":{"num_deleted":"0","num_feature":"23","num_nodes":"15","size_leaf_vector":"1"}},{"base_weights":[-8.4349245E-2,1.9114324E0,-7.407671E-1,2.9327347E0,-4.1478924E-2,8.0524623E-1,-1.9574101E0,1.0283374E-2,1.5812968E-1,-8.157268E-3,9.680285E-2,4.4947193E-4,-1.5166622E-1],"categories":[],"categories_nodes":[],"categories_segments":[],"categories_sizes":[],"default_left":[0,0,0,0,0,0,0,0,0,0,0,0,0],"id":34,"left_children":[1,3,5,7,-1,9,11,-1,-1,-1,-1,-1,-1],"loss_changes":[1.961364E2,1.333615E2,2.1627539E2,1.6920288E2,0E0,1.3625795E2,3.9375854E2,0E0,0E0,0E0,0E0,0E0,0E0],"parents":[2147483647,0,0,1,1,2,2,3,3,5,5,6,6],"right_children":[2,4,6,8,-1,10,12,-1,-1,-1,-1,-1,-1],"split_conditions":[7.5643456E-1,1.9E1,8.125E-1,2.631579E-1,-4.1478924E-2,3E0,2.2971765E3,1.0283374E-2,1.5812968E-1,-8.157268E-3,9.680285E-2,4.4947193E-4,-1.5166622E-1],"split_indices":[9,1,12,11,0,2,5,0,0,0,0,0,0],"split_type":[0,0,0,0,0,0,0,0,0,0,0,0,0],"sum_hessian":[1.46E2,3.5E1,1.11E2,2.7E1,8E0,4.9E1,6.2E1,1.4E1,1.3E1,3.5E1,1.4E1,3.9E1,2.3E1],"tree_param":{"num_deleted":"0","num_feature":"23","num_nodes":"13","size_leaf_vector":"1"}},{"base_weights":[1.7075431E-1,-3.879707E-1,2.0159216E0,-7.491807E-1,1.0188623E-1,3.8221655E0,-1.4514208E0,3.5050295E-2,-4.6946663E-2,9.660397E-3,1.4192618E-1,-1.1986265E-1,5.3978164E-2],"categories":[],"categories_nodes":[],"categories_segments":[],"categories_sizes":[],"default_left":[0,0,0,0,0,0,0,0,0,0,0,0,0],"id":35,"left_children":[1,3,5,7,-1,9,11,-1,-1,-1,-1,-1,-1],"loss_changes":[1.5083374E2,1.5685614E2,2.2521794E2,1.6652548E2,0E0,6.75809E1,1.2298274E2,0E0,0E0,0E0,0E0,0E0,0E0],"parents":[2147483647,0,0,1,1,2,2,3,3,5,5,6,6],"right_children":[2,4,6,8,-1,10,12,-1,-1,-1,-1,-1,-1],"split_conditions":[8.7011236E-1,2.025E1,3.3333334E-1,6.831818E-1,1.0188623E-1,9.15E-1,7.817857E-1,3.5050295E-2,-4.6946663E-2,9.660397E-3,1.4192618E-1,-1.1986265E-1,5.3978164E-2],"split_indices":[7,16,10,6,0,7,6,0,0,0,0,0,0],"split_type":[0,0,0,0,0,0,0,0,0,0,0,0,0],"sum_hessian":[1.42E2,1.1E2,3.2E1,1.02E2,8E0,2.1E1,1.1E1,3E1,7.2E1,5E0,1.6E1,6E0,5E0],"tree_param":{"num_deleted":"0","num_feature":"23","num_nodes":"13","size_leaf_vector":"1"}},{"base_weights":[1.1725867E-1,-1.8553026E-1,3.235444E0,6.160612E-1,-1.5083268E0,1.3387401E-2,1.4413892E-1,-1.7189959E-2,7.799163E-2,-8.153598E-2,9.312523E-3],"categories":[],"categories_nodes":[],"categories_segments":[],"categories_sizes":[],"default_left":[0,0,0,0,0,0,0,0,0,0,0],"id":36,"left_children":[1,3,5,7,9,-1,-1,-1,-1,-1,-1],"loss_changes":[1.386834E2,1.4333011E2,4.9984497E1,2.021226E2,1.1508304E2,0E0,0E0,0E0,0E0,0E0,0E0],"parents":[2147483647,0,0,1,1,2,2,3,3,4,4],"right_children":[2,4,6,8,10,-1,-1,-1,-1,-1,-1],"split_conditions":[4.347826E-1,2.962963E-1,3.4285715E-1,6.407812E-1,1.125E1,1.3387401E-2,1.4413892E-1,-1.7189959E-2,7.799163E-2,-8.153598E-2,9.312523E-3],"split_indices":[18,10,11,7,16,0,0,0,0,0,0],"split_type":[0,0,0,0,0,0,0,0,0,0,0],"sum_hessian":[1.42E2,1.31E2,1.1E1,8.2E1,4.9E1,5E0,6E0,5.2E1,3E1,2.9E1,2E1],"tree_param":{"num_deleted":"0","num_feature":"23","num_nodes":"11","size_leaf_vector":"1"}},{"base_weights":[-1.23493426E-1,5.2318114E-1,-1.761601E0,1.4639094E0,-1.4545196E0,-1.3460156E-1,-4.890289E-1,-6.288367E-2,7.164577E-2,-9.85115E-2,5.167993E-2,-4.2448215E-2,9.055095E-2],"categories":[],"categories_nodes":[],"categories_segments":[],"categories_sizes":[],"default_left":[0,0,0,0,0,0,0,0,0,0,0,0,0],"id":37,"left_children":[1,3,5,7,9,-1,11,-1,-1,-1,-1,-1,-1],"loss_changes":[1.5712355E2,2.0147403E2,1.3877602E2,2.5036269E2,2.1550339E2,0E0,1.08413536E2,0E0,0E0,0E0,0E0,0E0,0E0],"parents":[2147483647,0,0,1,1,2,2,3,3,4,4,6,6],"right_children":[2,4,6,8,10,-1,12,-1,-1,-1,-1,-1,-1],"split_conditions":[1.0032585E0,3.0769232E-1,1.094026E0,9.43E1,3.902439E-1,-1.3460156E-1,6.847826E0,-6.288367E-2,7.164577E-2,-9.85115E-2,5.167993E-2,-4.2448215E-2,9.055095E-2],"split_indices":[6,20,6,4,20,0,8,0,0,0,0,0,0],"split_type":[0,0,0,0,0,0,0,0,0,0,0,0,0],"sum_hessian":[1.44E2,1.04E2,4E1,7.1E1,3.3E1,1.1E1,2.9E1,1.4E1,5.7E1,2.1E1,1.2E1,2.4E1,5E0],"tree_param":{"num_deleted":"0","num_feature":"23","num_nodes":"13","size_leaf_vector":"1"}},{"base_weights":[-5.02371E-5,-3.7036988E-1,4.432987E0,-1.8548257E0,8.092688E-1,2.0724052E-1,1.8598804E-2,3.998403E-2,-8.137827E-2,4.4650212E-2,-2.8050482E-2],"categories":[],"categories_nodes":[],"categories_segments":[],"categories_sizes":[],"default_left":[0,0,0,0,0,0,0,0,0,0,0],"id":38,"left_children":[1,3,5,7,9,-1,-1,-1,-1,-1,-1],"loss_changes":[2.5570673E2,2.574375E2,1.009189E2,1.8564977E2,1.00188446E2,0E0,0E0,0E0,0E0,0E0,0E0],"parents":[2147483647,0,0,1,1,2,2,3,3,4,4],"right_children":[2,4,6,8,10,-1,-1,-1,-1,-1,-1],"split_conditions":[2.5757222E3,4.8E1,3.0555555E-1,4.5E0,5.6666665E0,2.0724052E-1,1.8598804E-2,3.998403E-2,-8.137827E-2,4.4650212E-2,-2.8050482E-2],"split_indices":[5,0,10,16,14,0,0,0,0,0,0],"split_type":[0,0,0,0,0,0,0,0,0,0,0],"sum_hessian":[1.53E2,1.43E2,1E1,6.3E1,8E1,5E0,5E0,1.3E1,5E1,5.8E1,2.2E1],"tree_param":{"num_deleted":"0","num_feature":"23","num_nodes":"11","size_leaf_vector":"1"}},{"base_weights":[1.0594046E-1,1.1322399E0,-7.21087E-1,-1.418335E0,1.920559E0,-1.3570514E0,1.5836953E0,2.4978796E-2,-8.17276E-2,1.0251545E-1,1.2429671E-3,6.548041E-2,-5.4606926E-2,-4.2648036E-2,1.952862E-1],"categories":[],"categories_nodes":[],"categories_segments":[],"categories_sizes":[],"default_left":[0,0,0,0,0,0,0,0,0,0,0,0,0,0,0],"id":39,"left_children":[1,3,5,7,9,11,13,-1,-1,-1,-1,-1,-1,-1,-1],"loss_changes":[1.3679414E2,1.504671E2,1.3463757E2,5.8394688E1,1.5547879E2,1.2417142E2,3.1712442E2,0E0,0E0,0E0,0E0,0E0,0E0,0E0,0E0],"parents":[2147483647,0,0,1,1,2,2,3,3,4,4,5,5,6,6],"right_children":[2,4,6,8,10,12,14,-1,-1,-1,-1,-1,-1,-1,-1],"split_conditions":[7.967857E-1,9.51E1,3.611111E-1,2.1537954E3,2.8947368E-1,9.23E1,1.2857142E1,2.4978796E-2,-8.17276E-2,1.0251545E-1,1.2429671E-3,6.548041E-2,-5.4606926E-2,-4.2648036E-2,1.952862E-1],"split_indices":[6,4,11,5,10,4,16,0,0,0,0,0,0,0,0],"split_type":[0,0,0,0,0,0,0,0,0,0,0,0,0,0,0],"sum_hessian":[1.57E2,7E1,8.7E1,1.6E1,5.4E1,6.9E1,1.8E1,6E0,1E1,2.9E1,2.5E1,7E0,6.2E1,1.2E1,6E0],"tree_param":{"num_deleted":"0","num_feature":"23","num_nodes":"15","size_leaf_vector":"1"}}]},"name":"gbtree"},"learner_model_param":{"base_score":"[9.429781E0]","boost_from_average":"1","num_class":"0","num_feature":"23","num_target":"1"},"objective":{"name":"reg:squarederror","reg_loss_param":{"scale_pos_weight":"1"}}},"version":[3,3,0]}